{
  "model_type": "tiny_q_attention_v1",
  "input_dim": 8,
  "d_model": 22,
  "num_layers": 1,
  "num_heads": 2,
  "num_kv_heads": 1,
  "num_actions": 16,
  "feature_mean": [
    0.0,
    0.0,
    0.0,
    0.0,
    0.0,
    0.0,
    0.0,
    0.0
  ],
  "feature_std": [
    1.0,
    1.0,
    1.0,
    1.0,
    1.0,
    1.0,
    1.0,
    1.0
  ],
  "feature_embedding": [
    [
      -0.15195066,
      -0.18810017,
      -0.19056083,
      0.19243859,
      -0.12556365,
      0.01360916,
      0.057503305,
      0.15400366,
      0.05264031,
      -0.14858125,
      0.085048385,
      0.1495277,
      0.118202165,
      -0.20732166,
      0.134725,
      0.03986282,
      -0.13974397,
      -0.0943867,
      0.20160244,
      0.08638713,
      0.06608233,
      -0.0673963
    ],
    [
      -0.105214715,
      0.17650262,
      -0.0018250775,
      -0.015749503,
      -0.025386723,
      0.008296636,
      0.11411747,
      0.061042663,
      0.11202779,
      -0.05420239,
      -0.11272483,
      0.11434785,
      -0.20632432,
      -0.04386292,
      -0.18349822,
      0.16148236,
      -0.18505691,
      -0.07436098,
      -0.09534755,
      -0.17934306,
      -0.053838193,
      0.15620992
    ],
    [
      -0.12401489,
      0.16849981,
      -0.042429,
      0.1503892,
      0.0957898,
      0.08434021,
      0.20479105,
      0.084420316,
      0.1581556,
      -0.016770082,
      0.21277298,
      0.070978425,
      0.14019632,
      -0.1510086,
      -0.039482936,
      -0.026576314,
      -0.09541087,
      0.00090740743,
      -0.14165425,
      -0.11807964,
      0.013864373,
      -0.012556627
    ],
    [
      -0.079967216,
      0.15869026,
      -0.0063812337,
      0.08632508,
      0.05104032,
      0.0183009,
      0.14876142,
      -0.07737852,
      -0.14032707,
      -0.19425261,
      -0.0548393,
      0.14737943,
      -0.12625682,
      -0.15984902,
      -0.15409721,
      -0.013816944,
      0.044847734,
      0.18396032,
      -0.04033796,
      -0.15321746,
      0.13778913,
      0.16541862
    ],
    [
      0.16048479,
      0.12554651,
      0.04613891,
      -0.11029207,
      0.13869636,
      0.100508906,
      -0.14859666,
      0.122876115,
      -0.20738545,
      0.2032989,
      -0.19645034,
      -0.18974526,
      -0.17242031,
      0.10423179,
      -0.006925202,
      -0.0074575543,
      -0.18035436,
      -0.07692527,
      -0.015574908,
      -0.15764214,
      -0.18007515,
      -0.20289145
    ],
    [
      -0.026557254,
      -0.021879993,
      -0.086893715,
      0.06505209,
      0.20906176,
      0.1762791,
      -0.036363944,
      0.11446929,
      0.10362,
      -0.015623543,
      -0.06310633,
      0.0514769,
      -0.1327267,
      -0.14662942,
      0.19830067,
      -0.17891487,
      0.083747074,
      -0.1519921,
      -0.20815785,
      -0.04491333,
      0.19871253,
      0.03357457
    ],
    [
      -0.20228235,
      0.0054723425,
      -0.016427705,
      0.17080861,
      0.18498386,
      0.100291915,
      0.1357108,
      -0.015758334,
      -0.072843395,
      0.19321494,
      0.20834579,
      0.036643848,
      -0.022737525,
      0.090298854,
      -0.16136278,
      0.028819654,
      0.19057564,
      0.17080003,
      0.025015812,
      0.03924395,
      0.2092101,
      0.07594429
    ],
    [
      0.0035330113,
      -0.053128026,
      0.01827445,
      -0.023117773,
      0.1979411,
      0.1867256,
      0.09512662,
      -0.03650345,
      -0.08663773,
      -0.034412872,
      0.034232233,
      -0.12978701,
      -0.18671636,
      0.02002973,
      -0.024145436,
      -0.1256487,
      -0.11973569,
      -0.02982164,
      -0.07932536,
      0.14118327,
      -0.041388936,
      -0.15413456
    ]
  ],
  "value_embedding": [
    -0.019355636,
    0.037933845,
    0.13119468,
    -0.013381166,
    -0.12519328,
    -0.016028883,
    -0.051559415,
    -0.04643843,
    -0.14125326,
    -0.1843728,
    -0.19222432,
    0.012095695,
    0.09968196,
    -0.045477692,
    -0.06785816,
    -0.05540492,
    -0.125039,
    0.077565044,
    0.16895282,
    -0.0042847972,
    0.046613663,
    -0.17323402
  ],
  "q_token": [
    -0.203887,
    -0.14532468,
    -0.21021138,
    0.13743873,
    -0.12881477,
    0.03542958,
    -0.10784241,
    0.0520505,
    -0.06297789,
    -0.079218246,
    0.052666612,
    -0.041549746,
    0.13364466,
    0.060083132,
    0.028627656,
    0.055014245,
    0.012897185,
    0.038846113,
    0.16675384,
    -0.105394445,
    0.10827773,
    -0.058184262
  ],
  "layers": [
    {
      "rms_weight": [
        1.0,
        1.0,
        1.0,
        1.0,
        1.0,
        1.0,
        1.0,
        1.0,
        1.0,
        1.0,
        1.0,
        1.0,
        1.0,
        1.0,
        1.0,
        1.0,
        1.0,
        1.0,
        1.0,
        1.0,
        1.0,
        1.0
      ],
      "wq": [
        [
          0.06489342,
          0.1827629,
          -0.18982063,
          -0.06649112,
          -0.08139106,
          -0.07256226,
          0.014316767,
          0.00027091106,
          0.16318262,
          -0.14170793,
          -0.0075574545,
          -0.02826997,
          -0.047856264,
          0.12933062,
          -0.14219555,
          -0.021683263,
          0.17662887,
          0.14058422,
          0.059922308,
          -0.016888773,
          -0.11656504,
          -0.13062342
        ],
        [
          -0.03719379,
          -0.046604954,
          -0.02421944,
          -0.031976588,
          -0.0017649658,
          -0.0747997,
          0.07814467,
          -0.1057882,
          0.09471946,
          0.17880315,
          -0.025521219,
          0.1789468,
          -0.17231184,
          -0.10361044,
          0.1894203,
          0.14119296,
          0.1010651,
          -0.18171501,
          0.007658555,
          -0.03574609,
          -0.021008434,
          -0.18636008
        ],
        [
          0.07298086,
          0.15230368,
          -0.032415275,
          0.048198644,
          0.07225487,
          -0.11298633,
          -0.14959706,
          0.09155612,
          -0.03161055,
          -0.097728975,
          -0.15605587,
          -0.042820256,
          0.09616749,
          -0.11828731,
          -0.12393129,
          -0.07673069,
          0.10434446,
          0.1795737,
          0.16665319,
          -0.06460319,
          -0.17371896,
          -0.21039218
        ],
        [
          0.07645803,
          0.0018803241,
          -0.025939057,
          0.196782,
          -0.12109342,
          0.011398238,
          -0.12823096,
          -0.20255865,
          -0.11143734,
          0.13289426,
          0.009202513,
          0.107175715,
          0.093309715,
          0.12765473,
          0.17966013,
          -0.064718306,
          0.19046465,
          -0.21080986,
          0.17129652,
          -0.057245973,
          -0.092268765,
          0.19851072
        ],
        [
          -0.028414827,
          -0.043538652,
          -0.0696115,
          0.076270856,
          0.07862402,
          0.06262609,
          -0.17462645,
          0.023514962,
          -0.12312879,
          -0.083966695,
          -0.21143097,
          -0.09836847,
          0.17609017,
          -0.109746404,
          -0.1961549,
          -0.07163204,
          -0.06764944,
          0.057195347,
          0.036906525,
          0.15625069,
          0.16629769,
          -0.20579994
        ],
        [
          -0.07596248,
          0.029508218,
          -0.0825363,
          0.056985565,
          0.040963452,
          0.16657884,
          0.21273354,
          -0.084363826,
          -0.2093474,
          0.14090373,
          0.12687588,
          0.022984196,
          -0.021167057,
          0.08364723,
          0.19793679,
          -0.1137174,
          0.17754926,
          0.21166672,
          0.12393278,
          0.12613267,
          0.027762774,
          -0.079989426
        ],
        [
          -0.058086414,
          -0.18313408,
          -0.031128924,
          -0.14161913,
          0.20936318,
          0.16626137,
          0.0027938008,
          0.036390513,
          0.08626521,
          0.013814612,
          0.006067918,
          0.175932,
          0.15287891,
          0.09694873,
          0.010395999,
          0.121347934,
          -0.12526834,
          -0.13077378,
          0.10353171,
          0.20888172,
          -0.08031081,
          -0.09475189
        ],
        [
          -0.19313054,
          0.13010551,
          0.11841549,
          -0.095448926,
          0.17549905,
          -0.19138288,
          -0.037254993,
          0.14068955,
          -0.079351634,
          -0.14551196,
          0.014370529,
          0.065966524,
          -0.07233076,
          0.20246983,
          0.076236196,
          0.20448099,
          -0.08501214,
          0.08705569,
          -0.19703978,
          -0.07992953,
          -0.16864222,
          -0.044311024
        ],
        [
          -0.05354742,
          -0.20227906,
          -0.045809504,
          -0.019285146,
          0.113125354,
          0.058890853,
          -0.09094025,
          -0.13849148,
          -0.13963558,
          -0.048774906,
          -0.10179843,
          -0.07834544,
          -0.12697521,
          -0.022386907,
          0.12209882,
          0.04486938,
          0.010569402,
          0.013251976,
          -0.034040503,
          -0.020314926,
          0.004591086,
          -0.14004837
        ],
        [
          0.104012,
          0.008125288,
          -0.065247014,
          -0.17976284,
          -0.09335452,
          0.14318886,
          0.18584228,
          -0.07228786,
          0.12101672,
          -0.15928112,
          0.0015783461,
          0.05531155,
          -0.07648175,
          0.013631188,
          -0.0131301535,
          -0.10391584,
          0.19726321,
          -0.0086644925,
          -0.21052402,
          0.14461766,
          0.029174335,
          -0.14797635
        ],
        [
          -0.19554816,
          -0.08385648,
          -0.20760314,
          0.036154725,
          -0.19551547,
          -0.1754574,
          0.2062199,
          0.025832769,
          -0.071251735,
          0.16466492,
          0.16396296,
          0.15162247,
          -0.07828836,
          0.12444705,
          -0.15997139,
          0.035249107,
          -0.009656721,
          0.050118346,
          -0.050522786,
          0.057817888,
          -0.17088825,
          -0.19696395
        ],
        [
          -0.08446682,
          0.057594497,
          0.052506447,
          0.040430583,
          -0.021135783,
          0.018648874,
          0.18520692,
          0.20518625,
          0.0006626984,
          0.08252585,
          -0.15813044,
          0.15324828,
          0.17277957,
          0.07901947,
          0.1398432,
          0.14247225,
          -0.08438484,
          -0.16011041,
          -0.13705684,
          -0.04817058,
          0.038607,
          -0.16850552
        ],
        [
          -0.04569722,
          0.05666688,
          0.20454374,
          0.03012569,
          0.1576553,
          0.08009775,
          0.19324313,
          -0.040669158,
          -0.0313262,
          0.13077618,
          0.15335251,
          0.07530047,
          -0.15658237,
          -0.20779261,
          -0.038147826,
          -0.20881803,
          -0.035538476,
          -0.17779882,
          -0.029057859,
          0.008799746,
          0.18431169,
          0.10876587
        ],
        [
          0.021608388,
          0.00001927359,
          -0.1510377,
          0.13198255,
          0.13913585,
          0.13872512,
          0.18734689,
          0.11859487,
          -0.026481885,
          0.082916796,
          0.1754517,
          -0.070676774,
          0.12452024,
          -0.14605135,
          -0.082398,
          -0.17657238,
          -0.18834682,
          0.16008066,
          0.19584437,
          -0.06604451,
          -0.1782982,
          0.021227749
        ],
        [
          0.10118529,
          -0.17125502,
          -0.038209174,
          -0.06915841,
          -0.20805919,
          -0.108595096,
          -0.15149944,
          0.12843975,
          -0.10275888,
          0.16728638,
          -0.03695251,
          0.19770844,
          -0.09768097,
          -0.1713624,
          0.07962229,
          0.018683951,
          -0.129116,
          -0.07672556,
          -0.052543506,
          0.012218963,
          -0.094325036,
          -0.1595618
        ],
        [
          0.021853132,
          0.20178661,
          0.12847894,
          -0.0426169,
          0.14686787,
          0.025710411,
          -0.077978745,
          -0.050731946,
          -0.16740763,
          0.08213614,
          0.036110774,
          0.18718915,
          -0.043793365,
          0.19765016,
          0.057327215,
          -0.1601095,
          0.012490729,
          0.13762861,
          -0.00085830543,
          0.02078054,
          -0.077480525,
          0.14583148
        ],
        [
          0.1256754,
          0.053497165,
          0.10644431,
          -0.04914813,
          -0.13797233,
          -0.1932335,
          0.06672392,
          -0.0048611052,
          -0.08801958,
          0.031012712,
          -0.12491205,
          0.08564867,
          0.20694056,
          0.06989448,
          0.0067843213,
          0.18442379,
          0.14157814,
          -0.010357583,
          -0.043659817,
          0.13465212,
          0.10092359,
          0.19940837
        ],
        [
          0.072741136,
          -0.055871997,
          -0.19200161,
          -0.025109774,
          -0.18607321,
          -0.1913434,
          -0.13051187,
          -0.026931668,
          -0.048610955,
          0.0381122,
          0.07150616,
          -0.17074351,
          -0.11349266,
          -0.17088883,
          -0.10805081,
          -0.09882107,
          -0.12486291,
          0.17907713,
          -0.13393147,
          0.20633765,
          -0.0227626,
          0.058188424
        ],
        [
          -0.08277548,
          0.103931464,
          0.1144848,
          0.20235693,
          -0.13803576,
          -0.016618716,
          0.01118673,
          0.17330998,
          0.12182842,
          0.003361763,
          -0.07766334,
          0.024344435,
          -0.07983517,
          -0.21137463,
          0.16280583,
          0.08213086,
          0.18859494,
          0.21289052,
          -0.08914758,
          -0.1970478,
          -0.108435936,
          0.013259136
        ],
        [
          -0.19015771,
          0.16281237,
          -0.020331424,
          0.018911371,
          -0.15686454,
          0.078727715,
          0.15640503,
          0.17025317,
          0.040574834,
          -0.18172227,
          0.037804388,
          -0.11383278,
          -0.00020537479,
          0.12952219,
          -0.02219216,
          -0.08195848,
          -0.11509601,
          -0.092351444,
          0.010035755,
          -0.06792142,
          -0.14124697,
          0.07270368
        ],
        [
          -0.16447754,
          0.058399316,
          -0.049443867,
          -0.0482737,
          0.17342195,
          0.09721217,
          -0.11427457,
          0.07613751,
          0.033634387,
          -0.055429846,
          -0.15403505,
          -0.1567401,
          0.07193141,
          -0.2047327,
          -0.20096563,
          0.044351723,
          -0.1724466,
          -0.053208947,
          0.077205144,
          0.023803784,
          0.02635948,
          -0.16941276
        ],
        [
          0.19473466,
          -0.13187145,
          0.02897006,
          -0.109338015,
          -0.051077124,
          0.002705334,
          -0.047865827,
          -0.2012748,
          0.07460142,
          -0.06349709,
          -0.18658286,
          0.025252929,
          -0.04433556,
          -0.015696323,
          0.18557918,
          0.08433174,
          0.08570578,
          -0.04588279,
          -0.16099232,
          -0.021976395,
          -0.025263447,
          0.18944806
        ]
      ],
      "wk": [
        [
          0.21266846,
          0.05275641,
          -0.067814514,
          -0.05557376,
          0.17727982,
          0.12058041,
          0.0911359,
          -0.081483066,
          0.0027379983,
          0.05203187,
          -0.20576073,
          -0.10945072,
          0.19358206,
          -0.14729056,
          0.049707375,
          0.07916315,
          -0.09869973,
          0.15698195,
          0.027167885,
          -0.18354535,
          0.045967426,
          -0.040803794
        ],
        [
          0.04336238,
          -0.088945486,
          -0.16173339,
          0.19802551,
          0.020715902,
          0.16482285,
          -0.096843936,
          0.15522979,
          0.11722564,
          0.013844002,
          -0.07372513,
          0.05433454,
          -0.15904835,
          0.14003977,
          0.17743169,
          -0.15344521,
          -0.11150321,
          -0.050819796,
          0.07123748,
          0.19945896,
          -0.18989912,
          -0.0024389266
        ],
        [
          0.17939208,
          -0.0394353,
          -0.19509012,
          0.15843223,
          0.03021129,
          0.17436607,
          -0.04097981,
          -0.08288328,
          -0.08953798,
          -0.014721453,
          -0.11724821,
          -0.20331399,
          -0.11163621,
          -0.030454632,
          0.174791,
          -0.031113325,
          -0.15734388,
          -0.09153396,
          -0.12098341,
          0.10262166,
          -0.10871738,
          -0.07416107
        ],
        [
          -0.019395685,
          -0.07069193,
          -0.02547817,
          0.13625051,
          0.14400595,
          0.08510206,
          0.13529359,
          -0.05439374,
          -0.11962954,
          -0.11585993,
          0.08708993,
          0.17773117,
          -0.19491881,
          0.07054767,
          0.1844173,
          -0.11398995,
          -0.0035028963,
          -0.16869318,
          0.1288182,
          -0.031507064,
          -0.105130784,
          0.05840898
        ],
        [
          0.13925424,
          -0.07505282,
          -0.107252225,
          -0.030105,
          0.086941466,
          0.0016453941,
          -0.18814214,
          -0.03033643,
          -0.015684418,
          0.2097141,
          0.20460026,
          0.17057507,
          0.1994825,
          -0.14978243,
          0.044729125,
          -0.19213803,
          -0.027723677,
          0.10302427,
          -0.05311258,
          -0.052880388,
          0.13906048,
          -0.14376451
        ],
        [
          -0.073588945,
          -0.18503128,
          0.06838939,
          0.07647546,
          0.011790872,
          -0.055875354,
          0.16371639,
          0.19012414,
          -0.20567535,
          0.05836472,
          -0.17946516,
          0.09143884,
          0.1293395,
          -0.10306179,
          0.10931164,
          0.010475782,
          -0.049522676,
          0.0073841163,
          -0.0073311953,
          0.07083734,
          0.068115026,
          0.012805752
        ],
        [
          -0.15743539,
          -0.14616255,
          0.05065496,
          0.09615709,
          -0.17191051,
          0.11199795,
          0.14387669,
          0.13937658,
          0.19914892,
          0.16859724,
          -0.16602176,
          -0.04313616,
          -0.0973931,
          0.059425987,
          -0.003971684,
          0.019755296,
          -0.08426056,
          -0.05246603,
          0.21051675,
          -0.18586108,
          0.19959228,
          0.067712635
        ],
        [
          0.078604825,
          0.029623201,
          -0.07384633,
          0.13087365,
          -0.045764994,
          0.20344941,
          0.18619238,
          0.09267815,
          -0.18310873,
          -0.11684416,
          0.14044122,
          0.12126803,
          -0.11253854,
          0.2025418,
          -0.011829686,
          -0.14165008,
          0.07336959,
          -0.20082024,
          -0.19230874,
          -0.08094084,
          -0.06451224,
          0.17206329
        ],
        [
          0.0077122524,
          -0.060300153,
          0.15352084,
          0.12983339,
          -0.0160772,
          0.09821514,
          -0.027664546,
          0.13016456,
          0.04036342,
          -0.19660701,
          0.16277696,
          0.16934231,
          0.12551664,
          0.18811235,
          -0.17575817,
          0.108622134,
          0.11426802,
          -0.025535598,
          0.04357326,
          -0.07001501,
          -0.18212837,
          0.16535051
        ],
        [
          0.00085286883,
          0.05864928,
          -0.0455064,
          -0.078973755,
          0.06873924,
          -0.090142384,
          -0.11401655,
          -0.056392837,
          -0.20673665,
          0.06836169,
          -0.053473424,
          -0.14114037,
          0.18936339,
          -0.020888394,
          -0.024736358,
          -0.1827323,
          -0.0734273,
          0.046724763,
          0.18423611,
          0.14659327,
          0.057676066,
          -0.05310507
        ],
        [
          -0.16062301,
          0.046886295,
          -0.20778896,
          -0.020524422,
          -0.11176265,
          -0.0680874,
          -0.0366426,
          0.15954593,
          -0.07182441,
          0.15392143,
          0.13216859,
          -0.015723998,
          0.20789674,
          -0.070247665,
          0.11719134,
          0.04984655,
          -0.14998421,
          0.08662595,
          -0.19342247,
          0.0377551,
          0.074292034,
          -0.071832426
        ]
      ],
      "wv": [
        [
          0.14780052,
          0.106489986,
          0.05166599,
          -0.19257039,
          0.19807144,
          -0.17017983,
          0.21263938,
          0.16859254,
          -0.17070727,
          -0.18647261,
          0.0048428974,
          0.097100966,
          0.1394242,
          -0.12827511,
          0.08941612,
          -0.04082727,
          -0.18015505,
          -0.07560337,
          -0.1454256,
          -0.053687923,
          0.15838623,
          0.03560292
        ],
        [
          -0.15706201,
          -0.08846507,
          0.1797994,
          -0.124062374,
          0.039625462,
          0.18345787,
          0.0075469976,
          0.11735169,
          -0.086840585,
          0.122941904,
          -0.12363634,
          0.18173486,
          0.06751924,
          0.1440539,
          0.11771524,
          0.03806362,
          -0.17805673,
          0.13105783,
          -0.16324502,
          -0.14338875,
          -0.18486266,
          -0.062470276
        ],
        [
          0.123563595,
          0.20137835,
          -0.09093763,
          -0.049336985,
          0.09102324,
          -0.06763575,
          -0.16915764,
          -0.20068225,
          0.20633113,
          0.026849588,
          0.12507507,
          0.072299905,
          0.076752394,
          -0.11135298,
          0.07270857,
          -0.17818072,
          -0.024342239,
          -0.20369032,
          0.06898466,
          -0.1747059,
          0.1491317,
          0.16933568
        ],
        [
          -0.023500152,
          0.16838366,
          0.11943273,
          0.0007308933,
          -0.20777538,
          0.011403929,
          0.006707459,
          -0.14091459,
          -0.19088402,
          0.054918516,
          -0.022229053,
          -0.13792562,
          0.15693414,
          0.057933245,
          0.06954109,
          0.12726346,
          -0.20181885,
          -0.07516144,
          0.0077072186,
          0.2033529,
          0.18508841,
          -0.17949398
        ],
        [
          0.068731986,
          -0.178801,
          -0.085280955,
          -0.17772546,
          0.002475886,
          -0.16649555,
          -0.13123709,
          -0.08848422,
          0.09995476,
          0.10891137,
          0.010400999,
          -0.20728248,
          -0.21140976,
          -0.12535942,
          -0.17288099,
          0.090174876,
          0.117502004,
          0.11898757,
          0.059801992,
          0.14542474,
          -0.09254657,
          -0.04989869
        ],
        [
          0.056293856,
          -0.21058655,
          0.09779963,
          -0.01497218,
          0.0685535,
          -0.028005956,
          0.05309205,
          0.07417463,
          0.12341122,
          0.012141429,
          -0.14753518,
          -0.055199746,
          0.07176254,
          0.028905198,
          0.048114225,
          0.11476243,
          0.09709298,
          0.14946514,
          -0.015593152,
          -0.16093929,
          0.09196205,
          -0.17382637
        ],
        [
          0.075686574,
          -0.18150625,
          -0.14180034,
          -0.07236177,
          0.15368898,
          0.028402098,
          -0.038402136,
          0.086440355,
          -0.027098753,
          0.12372578,
          0.009253715,
          -0.19224596,
          -0.089687906,
          0.111844696,
          -0.07837999,
          -0.033716578,
          0.1948329,
          0.13432169,
          0.0826146,
          0.0557865,
          -0.16325544,
          0.18199769
        ],
        [
          0.21142043,
          -0.0575087,
          0.12684123,
          0.0048559005,
          -0.0376354,
          0.13518463,
          -0.13098066,
          -0.1844026,
          -0.092040315,
          0.19153391,
          -0.120113716,
          -0.19302784,
          0.17970994,
          0.20662084,
          0.018834936,
          -0.112487055,
          -0.012539646,
          -0.20087247,
          -0.121878356,
          0.096123904,
          -0.1071496,
          0.13150442
        ],
        [
          0.032853372,
          0.16044298,
          0.09331748,
          0.011034939,
          0.1145709,
          0.20776735,
          -0.007888466,
          0.13508403,
          0.12551896,
          -0.026314763,
          -0.009566306,
          -0.103479,
          0.013627406,
          0.112567104,
          -0.182353,
          0.07994123,
          -0.12602217,
          -0.11602379,
          0.19154496,
          -0.062097367,
          -0.0066639297,
          -0.04562469
        ],
        [
          0.051175475,
          0.14678231,
          -0.1336098,
          0.014770138,
          -0.046784773,
          0.08384863,
          -0.07828457,
          0.13933927,
          0.06281219,
          -0.05812298,
          0.06460418,
          0.10721943,
          0.071308024,
          0.0032718785,
          0.18832265,
          0.1656148,
          -0.06998366,
          -0.011686527,
          -0.17998405,
          0.12332147,
          -0.12274967,
          0.06859294
        ],
        [
          0.03712182,
          -0.10856369,
          -0.16734885,
          -0.07519929,
          -0.115622506,
          -0.13239858,
          0.029988086,
          -0.18536304,
          0.13988997,
          0.03350557,
          -0.14584021,
          -0.06263918,
          0.18480976,
          -0.04016059,
          0.07416641,
          0.14666814,
          -0.07908376,
          -0.08465177,
          -0.016572298,
          0.13389269,
          0.066269465,
          0.056252092
        ]
      ],
      "wo": [
        [
          0.037188604,
          -0.13426186,
          -0.0057383706,
          0.14965875,
          0.14409813,
          -0.03344427,
          0.082662255,
          0.16964902,
          0.07156931,
          0.101990595,
          -0.16889505,
          0.14747053,
          0.18439093,
          -0.034956135,
          0.060539454,
          0.120584235,
          -0.15047109,
          -0.06354733,
          -0.06207454,
          0.16133521,
          -0.07728671,
          0.00057031703
        ],
        [
          -0.04265959,
          0.19767666,
          0.18976586,
          0.18285772,
          -0.15747319,
          -0.15000777,
          -0.15019421,
          0.07062477,
          0.15577199,
          0.09525713,
          0.0021391478,
          0.14383025,
          -0.04374395,
          0.18117315,
          0.16701135,
          -0.02757217,
          0.15155192,
          -0.05528,
          -0.07432747,
          -0.17656517,
          -0.11822045,
          0.07447331
        ],
        [
          -0.13539527,
          -0.11818281,
          0.14787297,
          -0.077889234,
          -0.14145002,
          0.13445048,
          0.053480953,
          0.13165396,
          -0.06502914,
          0.18946034,
          0.021874784,
          0.022414526,
          -0.2114369,
          -0.01270583,
          0.120671816,
          0.14810781,
          0.060794443,
          0.14647472,
          0.015883213,
          -0.038544577,
          -0.14329505,
          -0.1680587
        ],
        [
          -0.05460637,
          -0.12273703,
          0.02674596,
          -0.14242977,
          -0.111426674,
          0.112694204,
          -0.13658035,
          -0.20679459,
          -0.08420451,
          0.0856864,
          0.06318023,
          -0.13640033,
          0.18363313,
          0.18660527,
          -0.18780488,
          0.2016311,
          -0.10171383,
          0.14809121,
          0.18659979,
          0.16709745,
          0.1915505,
          0.06116472
        ],
        [
          0.16642556,
          -0.1063749,
          -0.16029255,
          -0.047510684,
          -0.165788,
          -0.11815773,
          0.007041477,
          -0.15358037,
          -0.020918002,
          0.004232448,
          0.044202276,
          0.06915103,
          -0.04703416,
          0.12212495,
          -0.03522095,
          -0.08753495,
          0.10267048,
          -0.07737165,
          -0.16169102,
          0.046084903,
          -0.17770025,
          -0.1619999
        ],
        [
          -0.12202413,
          0.011177105,
          -0.16057919,
          0.16941401,
          -0.13483468,
          0.17511514,
          -0.15955693,
          0.02554287,
          0.057995707,
          -0.017690266,
          -0.07614561,
          -0.072435014,
          0.0726066,
          0.15749091,
          0.12423544,
          -0.04970429,
          -0.08113071,
          0.010199237,
          0.0405962,
          0.13193429,
          -0.21146846,
          0.12337225
        ],
        [
          -0.12089565,
          0.014941441,
          -0.0752022,
          0.20662312,
          0.11865588,
          0.07371578,
          -0.19277996,
          0.09073716,
          -0.18211922,
          0.08102582,
          -0.1446404,
          -0.16196835,
          0.09126004,
          0.15682092,
          0.1198791,
          0.18047401,
          0.19266753,
          -0.10377418,
          0.12530804,
          0.13182344,
          -0.19315317,
          -0.072866894
        ],
        [
          -0.10750822,
          -0.18886055,
          -0.14272653,
          -0.17000529,
          -0.049631488,
          0.1637762,
          0.2100051,
          0.19083326,
          0.041510254,
          0.034805473,
          -0.19433744,
          0.050839264,
          -0.023682786,
          0.09905415,
          -0.022385938,
          0.053462934,
          -0.04872248,
          0.110053,
          0.014988492,
          0.18940383,
          0.18544425,
          0.127234
        ],
        [
          -0.20991378,
          -0.15331087,
          -0.1979346,
          0.17144947,
          0.092640765,
          0.17518023,
          0.040797584,
          0.10047275,
          0.1284521,
          0.084790215,
          -0.20209044,
          0.12896666,
          -0.07871011,
          -0.15078351,
          -0.076046504,
          -0.116997585,
          0.20416036,
          -0.14137791,
          0.2130511,
          -0.089603156,
          0.17545253,
          -0.10225774
        ],
        [
          0.20356534,
          0.118380606,
          0.20306173,
          -0.15570176,
          0.14717565,
          0.01515386,
          -0.10039071,
          0.18001308,
          -0.15168823,
          -0.037877534,
          -0.19952412,
          -0.057774074,
          -0.17687798,
          0.037902206,
          -0.10701428,
          -0.18906811,
          -0.14058791,
          0.2012944,
          -0.029860912,
          0.18616222,
          -0.015180734,
          -0.15847397
        ],
        [
          0.07824794,
          -0.14530969,
          0.037680898,
          0.020935837,
          -0.14229389,
          0.07541324,
          -0.06580464,
          0.049787838,
          0.15705645,
          0.13392028,
          0.14835885,
          0.04561167,
          0.02677026,
          -0.08332247,
          -0.14310849,
          -0.12959883,
          -0.10592659,
          0.10406829,
          -0.06842453,
          0.1720235,
          -0.12791045,
          0.16468145
        ],
        [
          0.035848707,
          -0.013688794,
          0.04953631,
          -0.12616643,
          0.0061587295,
          0.107185304,
          -0.10425193,
          0.1399638,
          -0.017329955,
          0.18842177,
          0.022918086,
          0.07087932,
          -0.08382843,
          -0.06748864,
          -0.19266379,
          0.123238504,
          0.04744653,
          -0.078998305,
          -0.17088456,
          -0.1865869,
          -0.21124114,
          -0.16828908
        ],
        [
          0.07384138,
          0.01131632,
          -0.12384921,
          0.154492,
          0.1755669,
          0.15129092,
          -0.105596066,
          -0.08910209,
          0.12838742,
          0.055375826,
          -0.13345972,
          -0.08273614,
          0.05355721,
          -0.106143296,
          -0.10894664,
          0.11480612,
          0.016068686,
          0.18637541,
          0.18787858,
          -0.042378638,
          -0.0034168232,
          -0.16479868
        ],
        [
          -0.002334474,
          -0.1643372,
          0.17051563,
          0.18782967,
          -0.1502869,
          0.17997381,
          0.011951023,
          0.12606639,
          -0.09513147,
          -0.1095007,
          -0.09194603,
          0.2019173,
          -0.14244074,
          -0.07042349,
          0.07888683,
          0.19570109,
          0.024963522,
          0.07094842,
          0.013267646,
          -0.022212666,
          0.14912185,
          0.19044814
        ],
        [
          0.18452185,
          -0.19471341,
          0.044606812,
          0.193355,
          -0.10614157,
          -0.034183573,
          0.106242426,
          -0.20949258,
          0.09046944,
          -0.12458433,
          0.117784865,
          -0.10695108,
          -0.002089882,
          -0.082493246,
          -0.001192075,
          0.025581164,
          0.101032816,
          -0.14509863,
          0.14808057,
          -0.025149425,
          0.06689886,
          0.088720195
        ],
        [
          0.15262918,
          -0.09004162,
          -0.18098797,
          -0.10912301,
          0.042534467,
          -0.17088006,
          -0.030454876,
          0.086460195,
          -0.08483064,
          0.05921197,
          -0.057378065,
          -0.06972847,
          0.10113763,
          -0.06299747,
          -0.036058556,
          -0.06742925,
          -0.20162255,
          -0.17659771,
          -0.12598938,
          0.10390633,
          0.054958154,
          -0.14511712
        ],
        [
          -0.04653503,
          -0.18429892,
          0.0019610794,
          0.1765429,
          0.06392696,
          0.010471918,
          -0.11543457,
          0.13988353,
          0.20885825,
          0.1560766,
          0.032717,
          -0.004722349,
          0.18362695,
          -0.010734953,
          0.15057729,
          -0.040832505,
          0.083679415,
          -0.12704895,
          -0.08729489,
          -0.09812753,
          0.013919478,
          -0.13827446
        ],
        [
          0.17017953,
          0.07543581,
          0.11942938,
          -0.118451454,
          0.17792617,
          -0.11637007,
          -0.12738901,
          0.11460056,
          -0.034892254,
          0.11273867,
          -0.10219071,
          -0.1502696,
          -0.10669753,
          0.10697831,
          0.14155509,
          0.08196056,
          0.20089652,
          -0.054016538,
          -0.04244085,
          -0.1713318,
          0.16575669,
          -0.15981196
        ],
        [
          0.044701107,
          0.21251042,
          -0.12347955,
          0.032729194,
          0.18341473,
          0.18141803,
          -0.15662313,
          0.18419565,
          0.18563674,
          0.18313596,
          0.095987305,
          -0.17678197,
          0.20927341,
          -0.19518544,
          0.20440373,
          -0.04318433,
          -0.11447215,
          0.21215378,
          -0.08830621,
          0.15315257,
          0.17687285,
          0.01836642
        ],
        [
          0.18702595,
          0.016483407,
          -0.020296432,
          -0.038359497,
          -0.15300167,
          -0.20598412,
          -0.15281615,
          -0.018975135,
          0.11743167,
          0.18329002,
          -0.12632489,
          -0.060211442,
          -0.02974135,
          0.03816026,
          0.15446317,
          0.018187083,
          0.19073968,
          0.17957942,
          -0.11533931,
          -0.08779468,
          -0.018604176,
          0.043266904
        ],
        [
          -0.037928514,
          -0.14773169,
          -0.04165618,
          -0.0630472,
          -0.20592864,
          0.15095274,
          0.10114844,
          0.19710238,
          -0.12565948,
          0.057947993,
          0.018375719,
          -0.18018863,
          -0.06603606,
          0.17500265,
          -0.18840103,
          0.09256685,
          0.013739435,
          -0.11681884,
          -0.18136817,
          0.094377674,
          0.037866358,
          -0.058111556
        ],
        [
          0.18726414,
          0.18314022,
          -0.038739987,
          0.20650387,
          -0.2078376,
          0.12456137,
          -0.17891829,
          0.056047175,
          0.16737133,
          0.18847443,
          0.018231645,
          0.1142439,
          -0.08853716,
          0.12668969,
          -0.106758736,
          0.1234114,
          -0.014606993,
          0.043898147,
          -0.12292906,
          0.1438482,
          0.07503656,
          -0.15496792
        ]
      ]
    }
  ],
  "final_rms_weight": [
    1.0,
    1.0,
    1.0,
    1.0,
    1.0,
    1.0,
    1.0,
    1.0,
    1.0,
    1.0,
    1.0,
    1.0,
    1.0,
    1.0,
    1.0,
    1.0,
    1.0,
    1.0,
    1.0,
    1.0,
    1.0,
    1.0
  ],
  "q_head": [
    [
      -0.06787212,
      0.046186287,
      0.2563608,
      -0.18586496,
      0.05147594,
      -0.05308114,
      0.53488207,
      0.094305456,
      0.043930188,
      -0.24207272,
      -0.38136294,
      0.4148127,
      0.11282215,
      0.00346178,
      -0.020902218,
      -0.6638955,
      -0.26869684,
      -0.017598297,
      -0.18147698,
      0.088054515,
      -0.3940061,
      -0.00014525143
    ],
    [
      0.08772123,
      0.29344946,
      0.05168047,
      -0.021229807,
      0.09893705,
      -0.33253103,
      0.39318088,
      0.13967556,
      0.2080456,
      -0.29166096,
      -0.23983905,
      0.118868716,
      0.14527936,
      -0.08743925,
      0.08014164,
      -0.76957345,
      -0.44152355,
      -0.012289114,
      -0.09478107,
      -0.059318494,
      -0.36223575,
      0.039232664
    ],
    [
      0.13065147,
      0.22314613,
      0.014851419,
      0.12125096,
      0.15294062,
      -0.22361246,
      0.42264706,
      0.15890302,
      0.30235708,
      -0.25183868,
      -0.24318267,
      0.1292584,
      0.15246624,
      0.07698738,
      0.14739063,
      -0.69400954,
      -0.10186292,
      0.14602652,
      -0.1474945,
      -0.21034397,
      -0.29165676,
      0.16836905
    ],
    [
      0.008234371,
      0.28220037,
      0.30620337,
      0.11984117,
      -0.11304399,
      0.010578734,
      0.4791599,
      0.25533158,
      -0.012021483,
      -0.33310455,
      -0.3077846,
      0.09103486,
      0.047050416,
      -0.112872995,
      0.25278446,
      -0.6282486,
      -0.26132157,
      -0.2162626,
      -0.26415694,
      -0.20075274,
      -0.3179316,
      -0.07208844
    ],
    [
      -0.14963454,
      0.39353156,
      0.18725045,
      0.079999134,
      -0.005908771,
      0.045990497,
      0.34987894,
      -0.06298024,
      0.24881487,
      -0.3774443,
      -0.35815266,
      0.030583916,
      0.14273064,
      -0.07063548,
      0.1094457,
      -0.6856582,
      -0.4144899,
      -0.08015443,
      -0.17607592,
      -0.17473328,
      -0.40999147,
      0.08289338
    ],
    [
      -0.28025457,
      0.41892,
      0.020899583,
      -0.34551886,
      0.14726388,
      -0.17924899,
      0.4245126,
      0.047421712,
      0.21163927,
      -0.33814603,
      -0.16620098,
      0.13540371,
      0.33104712,
      0.03189689,
      0.005922026,
      -0.91489404,
      -0.18636508,
      -0.07145086,
      0.0038062874,
      0.046129957,
      -0.3335101,
      0.104649395
    ],
    [
      0.042334326,
      0.05530788,
      0.20500645,
      0.047711235,
      -0.012895906,
      -0.3108601,
      0.32595327,
      0.12890415,
      0.33021712,
      -0.25978562,
      -0.22773969,
      0.23084877,
      0.27463847,
      0.14294389,
      -0.07750425,
      -0.72040683,
      -0.19545062,
      -0.19096574,
      0.11051414,
      -0.044983894,
      -0.24570777,
      0.10596062
    ],
    [
      0.050000545,
      -0.012426433,
      0.08878377,
      0.066491954,
      -0.24535753,
      -0.02570712,
      0.5789545,
      0.13019769,
      0.052356083,
      -0.0125239305,
      -0.35136393,
      0.18059774,
      -0.007833501,
      0.088165134,
      0.006997219,
      -0.8850561,
      -0.23781706,
      -0.042350136,
      -0.14762688,
      -0.20688932,
      -0.4172018,
      0.13254367
    ],
    [
      -0.03586145,
      0.3825284,
      0.2192044,
      0.040916413,
      -0.19344476,
      -0.17220601,
      0.3548622,
      -0.08652645,
      0.3660534,
      -0.15520014,
      -0.4426607,
      0.40773427,
      0.069658205,
      -0.17461503,
      0.12143614,
      -0.7218161,
      -0.15880921,
      -0.22832586,
      -0.1864179,
      0.02591237,
      -0.3777237,
      0.008348993
    ],
    [
      0.111138836,
      0.16982578,
      0.39620706,
      -0.062525734,
      -0.19523299,
      -0.045220274,
      0.31726068,
      -0.08935046,
      0.3425326,
      -0.22717473,
      -0.04675457,
      0.2784935,
      0.15813088,
      0.023201933,
      0.18402006,
      -0.7548632,
      -0.25660202,
      -0.02046523,
      -0.17402427,
      -0.18143125,
      -0.26601794,
      0.024606468
    ],
    [
      -0.036178075,
      -0.05921528,
      0.31780013,
      0.120527096,
      -0.060945448,
      -0.0037246707,
      0.08259903,
      0.07341921,
      0.28588063,
      -0.09038194,
      -0.25911927,
      0.2963449,
      -0.1412581,
      0.010122652,
      -0.069674864,
      -0.6838924,
      -0.39781484,
      0.041755483,
      -0.04566153,
      -0.23095413,
      -0.41461086,
      0.21108013
    ],
    [
      -0.024312507,
      0.41039905,
      -0.13808954,
      -0.15746857,
      0.15097752,
      -0.028799118,
      0.7404135,
      -0.05184629,
      0.10069574,
      -0.29251835,
      -0.31850767,
      0.3599444,
      0.005432733,
      0.1419604,
      0.26747245,
      -0.60908586,
      -0.02689091,
      -0.10030852,
      -0.17434967,
      -0.02815411,
      -0.76921207,
      0.07068338
    ],
    [
      -0.10305812,
      0.42505446,
      0.13064255,
      -0.2465547,
      -0.10164092,
      -0.03680369,
      0.47103488,
      -0.13585919,
      0.16363269,
      -0.20439306,
      -0.3628304,
      -0.004660396,
      0.21337031,
      0.115705505,
      0.310206,
      -0.6004817,
      -0.30557194,
      -0.16154215,
      -0.034639347,
      -0.28498894,
      -0.73836523,
      0.008196339
    ],
    [
      0.08888561,
      0.45642674,
      0.2289511,
      0.051625498,
      -0.0006479423,
      -0.20526809,
      0.3441146,
      -0.08717826,
      0.0756178,
      -0.3055015,
      -0.22078927,
      0.20727924,
      0.19412713,
      0.03064128,
      0.17617917,
      -0.8341103,
      -0.17062876,
      -0.17235723,
      -0.08044227,
      -0.21528201,
      -0.600984,
      0.07407605
    ],
    [
      0.00053361716,
      0.34694505,
      0.028558066,
      -0.11291579,
      0.11449599,
      -0.1455805,
      0.30773994,
      -0.13568811,
      0.055474922,
      -0.12502374,
      -0.36714908,
      0.33946398,
      0.017188435,
      0.03174259,
      0.15156198,
      -0.8006538,
      -0.23929521,
      -0.026540203,
      0.023787007,
      -0.29307613,
      -0.3801936,
      -0.17932677
    ],
    [
      -0.047557257,
      0.20812774,
      0.3883204,
      0.11952965,
      -0.07404361,
      -0.44354624,
      0.12654722,
      0.2109168,
      0.01826638,
      -0.2751811,
      -0.11647045,
      0.12576155,
      -0.10044225,
      0.1104753,
      0.21102016,
      -0.6756425,
      -0.2022452,
      0.18073882,
      -0.119748555,
      -0.20416994,
      -0.14431742,
      0.063067846
    ]
  ],
  "q_bias": [
    -0.22755213,
    -0.22006874,
    -0.25164652,
    -0.16577059,
    -0.21706544,
    -0.23072205,
    -0.24496374,
    -0.23830892,
    -0.25955808,
    -0.19978952,
    -0.16148345,
    -0.22974396,
    -0.23966251,
    -0.21112095,
    -0.20932873,
    -0.21222387
  ],
  "action_names": [
    "ROLL_UP",
    "ROLL_DOWN",
    "ROLL_FORWARD",
    "ROLL_BACK",
    "ATTACK_WHILE_MOVE_1_COMBO",
    "ATTACK_WHILE_MOVE_2_COMBOS",
    "MOVE_UP",
    "MOVE_DOWN",
    "MOVE_RIGHT",
    "MOVE_LEFT",
    "HEAL",
    "PATH_FINDING_TO_ZOMBIE_1",
    "PATH_FINDING_TO_ZOMBIE_2",
    "PATH_FINDING_TO_ZOMBIE_3",
    "PATH_FINDING_TO_ZOMBIE_4",
    "PATH_FINDING_TO_ZOMBIE_5"
  ]
}