{
  "model_type": "tiny_q_attention_v1",
  "input_dim": 8,
  "d_model": 22,
  "num_layers": 1,
  "num_heads": 2,
  "num_kv_heads": 1,
  "num_actions": 8,
  "feature_mean": [
    0.0,
    0.0,
    0.0,
    0.0,
    0.0,
    0.0,
    0.0,
    0.0
  ],
  "feature_std": [
    1.0,
    1.0,
    1.0,
    1.0,
    1.0,
    1.0,
    1.0,
    1.0
  ],
  "feature_embedding": [
    [
      -0.11306295,
      -0.07454996,
      0.1848472,
      0.044299107,
      0.121399395,
      0.18397212,
      -0.021546215,
      0.17025693,
      0.18453398,
      0.030808583,
      -0.07594802,
      -0.0044189887,
      -0.18622261,
      -0.13428368,
      0.053881425,
      0.07468265,
      0.16812116,
      -0.064109154,
      -0.110742204,
      -0.05331478,
      -0.03935097,
      0.071798734
    ],
    [
      0.042475168,
      0.12253082,
      -0.0996862,
      0.04162313,
      0.14550006,
      0.21069771,
      0.16599785,
      0.10232584,
      -0.17974041,
      -0.061175205,
      -0.03857213,
      -0.029806837,
      -0.19017787,
      -0.21124983,
      -0.027075332,
      -0.050371405,
      0.19694343,
      0.15912102,
      -0.101760894,
      -0.102690004,
      0.036604617,
      -0.15572773
    ],
    [
      -0.022035042,
      0.103080496,
      0.08534932,
      0.093919985,
      -0.21272609,
      -0.17792311,
      -0.10152727,
      -0.15262508,
      -0.13101283,
      0.12440892,
      0.1621288,
      0.07749629,
      0.011029788,
      0.12769075,
      -0.10219455,
      0.049195554,
      -0.17611736,
      0.1967631,
      -0.16614848,
      -0.09079357,
      -0.1649831,
      -0.017952487
    ],
    [
      -0.17405573,
      -0.047475487,
      0.15703033,
      0.038950913,
      -0.18661338,
      0.033455897,
      0.012739959,
      -0.20709227,
      -0.08147532,
      0.0475688,
      0.06471628,
      0.113476254,
      -0.0701721,
      -0.05022353,
      -0.108235754,
      0.016782241,
      -0.13128148,
      0.16927314,
      -0.13276203,
      0.018219301,
      -0.021793712,
      0.15968652
    ],
    [
      -0.104399644,
      0.15570349,
      -0.10997057,
      -0.09564898,
      0.15182611,
      -0.093572244,
      -0.059662834,
      -0.09926799,
      -0.18961419,
      0.20717889,
      -0.006158183,
      -0.09706989,
      0.15121976,
      -0.1268956,
      -0.0021313638,
      -0.15693092,
      -0.19945441,
      0.081321806,
      0.07254827,
      0.073177926,
      -0.110212386,
      0.2032006
    ],
    [
      -0.02633916,
      -0.1867384,
      0.14043525,
      0.17525102,
      0.05015402,
      0.13005392,
      -0.10137567,
      0.07235172,
      -0.17586859,
      -0.009486775,
      -0.055426832,
      -0.093911655,
      0.10304493,
      -0.035674293,
      -0.0063401936,
      -0.19111775,
      0.1273449,
      0.06836661,
      -0.04143348,
      -0.19028592,
      -0.10019797,
      0.013576661
    ],
    [
      0.12396536,
      -0.10510199,
      -0.044598326,
      0.019765308,
      -0.13533165,
      -0.03451296,
      -0.03549587,
      -0.07375709,
      -0.15734431,
      -0.0547168,
      -0.18121424,
      0.03841723,
      -0.21224046,
      0.127151,
      -0.031440534,
      0.0013083881,
      -0.1379796,
      0.040720016,
      0.16075303,
      0.09735484,
      0.091170214,
      0.023018738
    ],
    [
      0.17232847,
      0.1605924,
      -0.1977798,
      0.112339586,
      -0.13481218,
      0.11948391,
      -0.03708986,
      0.105349936,
      -0.0636467,
      -0.12364262,
      0.17326649,
      -0.13050316,
      -0.032330964,
      0.100830875,
      -0.07510295,
      -0.10399413,
      -0.15765752,
      0.14510447,
      -0.1480918,
      0.07765513,
      0.19887972,
      -0.030699156
    ]
  ],
  "value_embedding": [
    -0.16893166,
    -0.08387076,
    0.12348417,
    -0.20767438,
    0.20740448,
    0.18449573,
    -0.026030038,
    0.015713042,
    -0.005048814,
    -0.029267203,
    0.04929924,
    -0.048569746,
    -0.12102518,
    -0.061382793,
    -0.08357837,
    -0.04469326,
    0.13048759,
    -0.12600882,
    -0.15213814,
    0.1648928,
    0.17022926,
    0.12557884
  ],
  "q_token": [
    -0.21176668,
    -0.050322022,
    0.077349536,
    -0.08583304,
    -0.21238603,
    -0.17393115,
    0.17909664,
    0.10720257,
    0.049629223,
    -0.067198634,
    -0.09456709,
    -0.085416846,
    -0.072702184,
    -0.16606525,
    -0.009881704,
    -0.035268515,
    -0.09019832,
    -0.096462466,
    0.049638305,
    0.19850278,
    0.18352191,
    0.16557765
  ],
  "layers": [
    {
      "rms_weight": [
        1.0,
        1.0,
        1.0,
        1.0,
        1.0,
        1.0,
        1.0,
        1.0,
        1.0,
        1.0,
        1.0,
        1.0,
        1.0,
        1.0,
        1.0,
        1.0,
        1.0,
        1.0,
        1.0,
        1.0,
        1.0,
        1.0
      ],
      "wq": [
        [
          0.017513162,
          -0.20921701,
          -0.13002624,
          0.15373541,
          -0.20531738,
          0.16122043,
          0.14081524,
          0.13896692,
          -0.048851606,
          -0.1594087,
          0.0713277,
          0.18382074,
          -0.15810947,
          0.200669,
          0.2049941,
          -0.040988393,
          -0.015737083,
          -0.05454005,
          0.16745517,
          0.09657436,
          0.060478363,
          -0.10829647
        ],
        [
          0.19000338,
          -0.0756319,
          0.10400096,
          -0.076730005,
          -0.12407761,
          -0.10566941,
          -0.18688145,
          0.079348296,
          0.084468916,
          0.17660525,
          0.06336889,
          0.13001384,
          0.10533775,
          0.1343947,
          -0.12892535,
          -0.058161866,
          0.14294311,
          0.14720945,
          0.050166726,
          -0.18679933,
          0.14992364,
          0.1570739
        ],
        [
          -0.032807752,
          -0.18617128,
          -0.09002905,
          0.13874951,
          0.038152646,
          0.19186878,
          -0.20405395,
          0.07886383,
          -0.0774227,
          -0.04967799,
          0.087666936,
          -0.102923974,
          0.06157705,
          0.1907229,
          -0.034327418,
          -0.08284614,
          0.07814658,
          -0.009649772,
          0.19734007,
          -0.17328683,
          0.033743676,
          -0.09172686
        ],
        [
          0.059711125,
          0.16320555,
          -0.18056558,
          -0.033051666,
          -0.046515495,
          0.1323949,
          0.12666258,
          0.050600883,
          0.087445684,
          -0.034495194,
          0.14182532,
          -0.06911215,
          0.13352121,
          -0.16970018,
          -0.10560692,
          -0.15774333,
          0.164997,
          -0.0033648775,
          -0.109606095,
          -0.13578601,
          -0.0272428,
          0.09779595
        ],
        [
          -0.0032658065,
          0.082202084,
          -0.11676895,
          0.1694331,
          0.16272327,
          0.063876495,
          0.13248394,
          -0.14155631,
          -0.019411828,
          0.14853942,
          0.020272596,
          -0.13206455,
          0.003577176,
          0.08676916,
          0.042697605,
          -0.20699133,
          -0.018559575,
          0.17458194,
          -0.18277231,
          -0.06785108,
          0.010462944,
          0.0050530015
        ],
        [
          0.15548971,
          0.1677037,
          0.17240188,
          -0.13736384,
          -0.20796241,
          0.19790691,
          -0.03690497,
          -0.008667361,
          -0.18120375,
          0.016328726,
          -0.124257244,
          0.17883189,
          -0.18147889,
          -0.052322324,
          0.17672648,
          -0.05651495,
          0.05108582,
          0.18782036,
          -0.090831384,
          0.2030796,
          -0.10151989,
          0.19411239
        ],
        [
          -0.15194525,
          0.15725842,
          -0.14249608,
          0.000013321739,
          -0.07381854,
          -0.20832111,
          0.11004895,
          0.1952163,
          0.2100064,
          0.093975,
          -0.08158332,
          0.032942172,
          0.03290694,
          0.011919544,
          0.18301259,
          0.045904383,
          0.07478089,
          0.0885098,
          0.02705694,
          0.10504121,
          0.08795323,
          -0.0679587
        ],
        [
          -0.19177908,
          -0.041676126,
          -0.029954072,
          0.028297277,
          -0.045224488,
          0.19025473,
          -0.047052238,
          0.02575134,
          0.0062277815,
          -0.17206061,
          -0.14149344,
          0.10096295,
          0.12982437,
          -0.044609796,
          0.1297825,
          -0.00573724,
          -0.06805573,
          0.048111275,
          0.0814208,
          -0.02573877,
          0.03531974,
          -0.14542216
        ],
        [
          -0.20170116,
          -0.06071991,
          0.030951623,
          -0.04104064,
          -0.19294754,
          0.19455956,
          0.13941158,
          -0.039291915,
          -0.1166652,
          0.21132855,
          0.18424347,
          0.11499783,
          0.08272559,
          -0.07456659,
          0.013231778,
          0.15721281,
          -0.19723709,
          0.1478103,
          -0.14174873,
          -0.049993165,
          -0.08259769,
          0.1271678
        ],
        [
          0.0313821,
          0.06469725,
          -0.011153683,
          -0.10789847,
          -0.0766162,
          0.099462524,
          0.064047,
          -0.136828,
          0.15830839,
          0.010190376,
          0.10180854,
          -0.08372987,
          -0.09496752,
          0.15249987,
          0.12035515,
          -0.03419984,
          0.19227396,
          -0.10786681,
          -0.0150845405,
          0.17923263,
          -0.13584371,
          -0.026883407
        ],
        [
          -0.12542523,
          0.17470475,
          0.091729335,
          -0.19908889,
          -0.042904403,
          0.080471836,
          0.073052846,
          -0.114051804,
          0.01813437,
          -0.0029819126,
          -0.10284968,
          -0.104820855,
          -0.13496687,
          -0.1492744,
          -0.018533796,
          0.0672156,
          0.013984752,
          0.04532179,
          0.15856913,
          -0.056263465,
          -0.20996116,
          -0.093191124
        ],
        [
          -0.19788067,
          -0.055152968,
          0.07499294,
          -0.16674085,
          0.0109175965,
          0.19519888,
          0.07025596,
          -0.044466548,
          0.11083659,
          0.21303262,
          0.061950922,
          0.20829915,
          0.085511915,
          0.12248475,
          0.023756871,
          0.11460233,
          0.12352997,
          0.035189793,
          0.07195406,
          0.20715117,
          -0.024587238,
          -0.1437166
        ],
        [
          -0.04858126,
          -0.010986016,
          0.021039598,
          -0.018552328,
          0.15921946,
          0.029811399,
          -0.21163931,
          0.20828241,
          0.1940116,
          -0.19706641,
          0.19329543,
          0.19992034,
          0.05602232,
          0.12230928,
          -0.11550937,
          -0.19951896,
          0.12672071,
          0.19706294,
          0.0010276145,
          0.16320303,
          -0.14698225,
          -0.12822922
        ],
        [
          0.14229308,
          0.014780808,
          -0.13679813,
          0.044334117,
          -0.09375623,
          0.15724571,
          0.07340072,
          -0.18748696,
          -0.12879248,
          -0.08740056,
          0.14100528,
          0.1730724,
          0.0059749335,
          -0.1814298,
          0.18043184,
          -0.07311612,
          -0.13160026,
          -0.18897317,
          0.009865289,
          0.15823564,
          0.15868455,
          0.08161742
        ],
        [
          0.17489435,
          0.103638865,
          0.0884627,
          0.18513145,
          0.16829187,
          -0.17878494,
          -0.016035367,
          0.059992608,
          -0.11836634,
          -0.06633012,
          0.167897,
          0.027150447,
          -0.036087994,
          -0.15634789,
          0.09509756,
          0.15180597,
          0.0859822,
          -0.17042936,
          -0.010042779,
          -0.1564201,
          -0.18918268,
          0.1694839
        ],
        [
          -0.09206999,
          0.081492044,
          -0.04166746,
          -0.20816258,
          0.02044967,
          0.14223482,
          -0.06446192,
          0.060445316,
          0.06719203,
          -0.14906418,
          -0.19068502,
          -0.12414969,
          -0.0563893,
          0.20786786,
          0.132757,
          -0.15457726,
          0.17484997,
          -0.15393835,
          0.05971694,
          -0.15924694,
          0.08764881,
          0.14114733
        ],
        [
          -0.038640868,
          0.067362994,
          -0.055199847,
          -0.115280904,
          0.19941221,
          0.20686863,
          0.16231735,
          -0.19882233,
          -0.02830431,
          -0.18950413,
          0.120982066,
          0.14550892,
          -0.04995797,
          0.21082997,
          -0.008193487,
          0.15309052,
          -0.18148175,
          0.10962045,
          -0.18754686,
          0.073148794,
          0.18472388,
          -0.08153307
        ],
        [
          0.007541795,
          -0.1530994,
          -0.18465614,
          -0.106968395,
          -0.10677248,
          0.03908682,
          0.16040373,
          -0.046083536,
          -0.13024326,
          0.1570535,
          0.042912602,
          -0.028535059,
          -0.015804414,
          0.16260605,
          0.059081487,
          0.024049478,
          0.06431466,
          -0.07206,
          0.14080468,
          0.17066775,
          0.14344995,
          0.094519556
        ],
        [
          0.13485509,
          -0.09267644,
          -0.17652856,
          -0.13030978,
          0.11449417,
          -0.06021901,
          -0.023681095,
          0.088585906,
          -0.20231307,
          -0.11640792,
          0.13090955,
          -0.020993631,
          0.06439468,
          0.010478587,
          0.08195462,
          0.065809935,
          0.10043177,
          0.10211285,
          -0.179644,
          0.16499631,
          0.06930143,
          -0.029539509
        ],
        [
          -0.14221507,
          0.17035264,
          -0.09969223,
          -0.19942318,
          0.1719043,
          0.20874621,
          0.018337261,
          -0.09878764,
          -0.19763723,
          -0.008014337,
          -0.19486538,
          0.20544751,
          0.12975287,
          0.107767485,
          0.020423587,
          -0.10370688,
          0.094786145,
          -0.10489394,
          -0.0148121705,
          0.010962879,
          0.10507841,
          -0.19688539
        ],
        [
          0.09809429,
          -0.03689084,
          -0.0837254,
          -0.13906704,
          0.11006484,
          0.14750275,
          0.1889766,
          -0.10646633,
          -0.0018298246,
          -0.081749514,
          0.1658526,
          0.1673013,
          0.025354926,
          -0.056900505,
          0.06384399,
          -0.04315495,
          0.09291215,
          0.012572091,
          -0.21272756,
          0.0065350067,
          0.109561555,
          0.03702818
        ],
        [
          0.043376826,
          -0.12458502,
          0.09996416,
          0.070621796,
          0.123015925,
          0.15315726,
          0.056386337,
          0.19628026,
          -0.17141405,
          -0.16588412,
          -0.1055023,
          0.17229363,
          -0.0891512,
          0.119022936,
          -0.052043088,
          0.055649865,
          0.10161639,
          -0.19818941,
          0.16806583,
          -0.17496775,
          0.14397126,
          0.008426389
        ]
      ],
      "wk": [
        [
          0.17266895,
          -0.017250525,
          -0.026011363,
          -0.20763344,
          0.18187891,
          -0.0593434,
          -0.07610184,
          -0.16473517,
          -0.11844965,
          0.13783944,
          -0.1311698,
          0.11347473,
          0.18784238,
          0.18186074,
          -0.0507203,
          0.1715917,
          0.050723694,
          -0.03687266,
          -0.19062293,
          0.08888305,
          -0.04282553,
          0.07011472
        ],
        [
          -0.0109946,
          -0.17242357,
          -0.033283908,
          -0.1314585,
          0.05916912,
          0.046753846,
          0.16484967,
          -0.034906317,
          -0.16016294,
          -0.21114765,
          -0.04684738,
          0.054162323,
          0.2014709,
          -0.20292076,
          0.10922086,
          0.069290414,
          -0.1429852,
          0.011479866,
          0.17651105,
          0.15308346,
          -0.1814523,
          -0.059725028
        ],
        [
          -0.06576248,
          -0.1641788,
          0.007905621,
          -0.037348364,
          0.08778297,
          -0.11347541,
          -0.17743994,
          -0.011773428,
          0.00095478696,
          0.15660168,
          0.03146696,
          0.19342028,
          -0.029933518,
          -0.17081031,
          0.012715485,
          -0.1073565,
          -0.19126125,
          -0.20360911,
          -0.1763309,
          -0.15015887,
          -0.17676918,
          0.13440277
        ],
        [
          -0.17121923,
          0.07491773,
          0.07514369,
          -0.09498732,
          -0.09428554,
          -0.09100187,
          0.1993767,
          0.049081814,
          -0.20646347,
          -0.13631406,
          -0.07979841,
          -0.014310955,
          -0.044487208,
          -0.014511613,
          0.12186172,
          -0.20097117,
          -0.045432236,
          0.05883056,
          -0.16435944,
          0.12788461,
          0.17643835,
          0.042081255
        ],
        [
          -0.045930672,
          -0.12940413,
          -0.083193295,
          0.028281378,
          -0.06490485,
          -0.026426032,
          0.13364479,
          0.0946737,
          -0.067137256,
          0.03910334,
          -0.098708175,
          0.2094946,
          0.08848215,
          -0.056948148,
          -0.19260806,
          -0.032531127,
          -0.069979444,
          -0.07310092,
          0.15623811,
          -0.11908048,
          0.009766102,
          0.07315487
        ],
        [
          0.16738339,
          -0.06735112,
          0.11691115,
          0.18102868,
          0.0030874,
          0.0483979,
          -0.1769345,
          0.1004714,
          -0.07460132,
          0.17200378,
          -0.12152969,
          0.1449542,
          -0.0038480489,
          -0.14006698,
          -0.15227282,
          -0.106667176,
          -0.034046005,
          0.008044488,
          0.11458367,
          -0.052991208,
          -0.14333455,
          -0.053154077
        ],
        [
          -0.14149512,
          0.1496104,
          -0.07617757,
          -0.13524646,
          -0.09990218,
          0.06525281,
          0.1759759,
          -0.16699763,
          -0.042761344,
          -0.016306525,
          -0.10820681,
          -0.2026077,
          0.048206847,
          -0.04850919,
          -0.10249239,
          -0.017759498,
          0.160318,
          0.2046817,
          0.11948318,
          0.061719593,
          0.04292024,
          -0.12008538
        ],
        [
          0.042511728,
          -0.056874264,
          0.0017952553,
          -0.07969069,
          0.14832126,
          0.054200757,
          0.076914884,
          0.19644293,
          0.115375094,
          0.16332391,
          -0.0039277403,
          0.14241208,
          -0.125295,
          -0.18241031,
          0.11899418,
          0.0036669923,
          0.03276089,
          0.12121277,
          -0.014475849,
          0.084327176,
          -0.06150047,
          -0.1410182
        ],
        [
          -0.09491222,
          0.11803422,
          0.15761693,
          0.1383727,
          -0.041915264,
          0.04930735,
          -0.15022653,
          -0.12655577,
          0.20710397,
          -0.046105303,
          -0.047752306,
          0.17188402,
          -0.11664024,
          0.13125531,
          0.055848684,
          -0.098869815,
          -0.16335732,
          -0.12890792,
          -0.05840326,
          -0.10384613,
          0.17974521,
          -0.14310038
        ],
        [
          0.21167697,
          0.20166087,
          0.08643692,
          -0.20751895,
          -0.11405284,
          -0.13379118,
          0.12850545,
          0.011100002,
          -0.12922487,
          -0.19746807,
          0.058295976,
          -0.019081159,
          -0.09094092,
          0.02582135,
          -0.115024224,
          0.057314787,
          0.002956419,
          0.17670481,
          -0.08507853,
          0.17469643,
          0.16077465,
          -0.0031411317
        ],
        [
          0.21088648,
          0.011815874,
          0.05288488,
          0.02607865,
          -0.16527037,
          -0.03447827,
          -0.053727325,
          -0.026819503,
          0.08609041,
          -0.19735691,
          -0.035239536,
          -0.09003546,
          0.05927051,
          0.13397829,
          -0.20262513,
          0.16735037,
          -0.12611045,
          0.13960569,
          0.031059772,
          0.035313312,
          -0.045679104,
          -0.0042382632
        ]
      ],
      "wv": [
        [
          -0.07390532,
          -0.14780518,
          -0.123547375,
          0.14940964,
          -0.12740216,
          -0.14880571,
          0.076694235,
          -0.19983096,
          -0.011585338,
          -0.13005222,
          -0.17701182,
          -0.06829745,
          0.05360073,
          -0.15817548,
          0.11657063,
          -0.20193878,
          -0.19884491,
          0.069192626,
          0.15249047,
          0.096371785,
          -0.05173691,
          0.1692477
        ],
        [
          -0.0032352987,
          -0.061940655,
          0.21015206,
          -0.10591408,
          -0.18276738,
          0.14034331,
          -0.18468688,
          -0.19486181,
          -0.048563793,
          0.15401079,
          -0.11705088,
          0.163301,
          0.07032496,
          -0.010100198,
          -0.03923069,
          -0.17437744,
          0.015953692,
          -0.13960198,
          0.13464125,
          0.20720932,
          -0.117926404,
          0.1536968
        ],
        [
          -0.0737619,
          -0.1488795,
          0.15337922,
          -0.10897721,
          0.1241795,
          0.083274886,
          -0.10413527,
          0.023577055,
          -0.18310134,
          0.026368745,
          0.08359463,
          -0.14065461,
          -0.075521246,
          -0.17420445,
          0.194094,
          -0.042556416,
          -0.19801651,
          -0.12247032,
          -0.024441388,
          -0.1418024,
          0.109757155,
          -0.17443895
        ],
        [
          -0.044835597,
          -0.15700132,
          0.054256327,
          0.15606683,
          0.06386803,
          -0.027981948,
          -0.08791585,
          0.18131831,
          0.051118895,
          -0.13044745,
          0.08172993,
          -0.052021474,
          0.031500846,
          -0.16900794,
          -0.045250032,
          -0.033474617,
          0.20528656,
          0.10725329,
          -0.15895519,
          -0.012497561,
          0.18244421,
          -0.07400674
        ],
        [
          -0.039652653,
          0.21245903,
          0.05423031,
          0.07815335,
          0.06647048,
          -0.080915965,
          -0.015114031,
          -0.14772923,
          -0.08469518,
          0.016701313,
          -0.008291203,
          0.117712304,
          -0.105937384,
          0.112342305,
          -0.12504537,
          -0.12577021,
          -0.11501781,
          0.13306235,
          0.064134754,
          0.049233608,
          -0.14552955,
          -0.17731556
        ],
        [
          0.06655246,
          0.20296967,
          -0.18701416,
          0.18892415,
          -0.07982287,
          0.007007456,
          -0.0737512,
          -0.0748427,
          0.024036363,
          0.21104932,
          -0.0794391,
          -0.17648622,
          -0.109938085,
          -0.18496375,
          0.13094647,
          -0.12221082,
          0.15561293,
          0.060194198,
          0.04246327,
          -0.056491323,
          0.14359824,
          -0.16897841
        ],
        [
          0.17863852,
          0.041264366,
          -0.13201463,
          -0.16870667,
          0.17734906,
          -0.19560793,
          0.19858499,
          0.07450714,
          0.21152,
          -0.056810763,
          -0.09741275,
          0.09308129,
          -0.058438722,
          0.036309827,
          -0.095802836,
          -0.035066016,
          0.0045332694,
          -0.091479614,
          0.017915227,
          -0.0067356084,
          -0.03921511,
          -0.13108608
        ],
        [
          -0.08433585,
          -0.010494391,
          0.038608167,
          -0.20362282,
          -0.1032067,
          0.10623444,
          -0.07427489,
          -0.0061870026,
          -0.06722631,
          -0.06683354,
          0.21264577,
          0.09877027,
          0.14563002,
          -0.18463437,
          0.11597817,
          0.16485576,
          0.12793885,
          -0.19639373,
          0.026551079,
          -0.15334468,
          0.07041342,
          0.0617873
        ],
        [
          0.040454775,
          -0.16040158,
          0.05201473,
          -0.074729845,
          -0.0050772964,
          0.0929178,
          0.1969549,
          0.11668097,
          0.035852388,
          -0.20489597,
          -0.113553405,
          0.13781959,
          -0.07828533,
          -0.08678081,
          -0.14554094,
          0.16198637,
          0.030791968,
          -0.13161615,
          -0.14262418,
          -0.10362892,
          -0.008236169,
          -0.114267856
        ],
        [
          -0.05157816,
          -0.097987875,
          -0.18710622,
          0.028948966,
          0.008347246,
          0.014735025,
          0.21020828,
          0.06553557,
          0.034756202,
          0.1552393,
          0.05876122,
          -0.056258675,
          0.11981646,
          0.16883358,
          -0.19603011,
          0.1067851,
          0.10855598,
          -0.12890711,
          0.13916165,
          0.114215314,
          0.1599322,
          -0.043180227
        ],
        [
          -0.07434634,
          -0.0035050893,
          -0.104342885,
          -0.16575156,
          0.11414092,
          0.19761449,
          0.030249475,
          0.0077244267,
          -0.1556792,
          -0.10585196,
          -0.052208364,
          0.046065483,
          0.20686436,
          0.1771871,
          0.022519832,
          -0.19988236,
          0.020130316,
          -0.096560836,
          0.14023928,
          0.15173717,
          -0.068878226,
          0.031585578
        ]
      ],
      "wo": [
        [
          -0.12590644,
          0.014176049,
          -0.09589324,
          0.0018847481,
          0.13314506,
          0.03427627,
          -0.1051832,
          -0.12256993,
          0.17245872,
          -0.024355236,
          0.15076485,
          0.12152751,
          0.21108277,
          0.00067476503,
          0.14515968,
          -0.17681842,
          -0.028514465,
          0.061649166,
          -0.14061354,
          -0.043310545,
          -0.04539686,
          0.1938036
        ],
        [
          0.08034213,
          0.11644988,
          0.09782623,
          0.16099435,
          0.050819602,
          -0.009805154,
          -0.099112906,
          -0.03713169,
          0.21227662,
          -0.116278425,
          -0.10141139,
          0.09651701,
          0.023535535,
          0.17297822,
          -0.17776543,
          0.16656876,
          0.029567925,
          0.09879458,
          -0.0069671557,
          -0.057088822,
          -0.15299013,
          -0.11948064
        ],
        [
          -0.106383845,
          0.0036160285,
          -0.1351888,
          -0.099944375,
          0.17366174,
          -0.15225019,
          0.19941215,
          0.082930006,
          0.07254159,
          -0.003783557,
          0.007645953,
          0.121837914,
          0.14727981,
          -0.20513637,
          -0.02304241,
          -0.0031353252,
          0.15563048,
          0.09934542,
          0.028454568,
          -0.065916285,
          -0.17597897,
          -0.09204992
        ],
        [
          0.17649879,
          0.16710453,
          0.21146087,
          0.08076218,
          -0.11222555,
          -0.16614798,
          0.09262244,
          0.04376333,
          0.082205884,
          -0.16620563,
          0.010879403,
          -0.1053077,
          -0.05184871,
          0.15436855,
          -0.0086334925,
          -0.036826063,
          0.13208906,
          -0.10292644,
          0.2121057,
          -0.08889378,
          -0.17380719,
          -0.06860581
        ],
        [
          -0.04861869,
          0.13322018,
          -0.012372956,
          -0.20397136,
          0.18934368,
          -0.056534357,
          -0.12740211,
          -0.018730555,
          -0.21153551,
          0.20050076,
          0.009233418,
          0.124420434,
          -0.12720652,
          -0.15565728,
          0.11118558,
          -0.17417298,
          -0.16788064,
          0.15816501,
          -0.21319911,
          0.15597112,
          -0.032440484,
          -0.17673205
        ],
        [
          0.09895985,
          -0.147016,
          0.01694299,
          -0.15945199,
          -0.16400401,
          -0.12985498,
          -0.19244403,
          -0.019868178,
          0.057161056,
          0.19978143,
          0.0053424947,
          0.14856027,
          -0.1495744,
          0.16248947,
          -0.16600737,
          0.15405445,
          -0.21313916,
          -0.02660387,
          0.03729305,
          0.1761141,
          -0.095572054,
          0.010748274
        ],
        [
          -0.094329484,
          0.04627225,
          0.035580054,
          0.13399631,
          -0.09379695,
          -0.123042576,
          -0.004469243,
          -0.07568187,
          -0.054490786,
          -0.033191945,
          0.061473098,
          -0.15862148,
          0.14858325,
          0.18329164,
          -0.084670946,
          0.06700849,
          -0.021872828,
          0.067257956,
          0.007627226,
          0.08372888,
          0.06262885,
          0.11592489
        ],
        [
          0.055900604,
          0.20911223,
          -0.1709557,
          -0.15407623,
          0.10474545,
          0.017735653,
          -0.18048778,
          0.10748785,
          -0.13148561,
          0.11054811,
          0.13121109,
          0.15446202,
          -0.049781084,
          -0.0050584627,
          0.08551611,
          0.023169957,
          0.20713714,
          0.16980037,
          0.065465,
          -0.003722509,
          -0.1002314,
          0.12817529
        ],
        [
          0.0015772625,
          -0.15160783,
          -0.20282182,
          0.20355658,
          0.03549806,
          -0.0015345304,
          0.1756836,
          -0.1573642,
          -0.10853248,
          -0.21072173,
          0.010333062,
          -0.015910845,
          -0.010821342,
          -0.09712203,
          0.09868724,
          -0.15300974,
          0.10263433,
          0.13889958,
          0.20408471,
          -0.00853274,
          0.17696737,
          0.18836376
        ],
        [
          -0.14363357,
          -0.07515628,
          -0.013243286,
          0.005836017,
          -0.15428357,
          -0.04077363,
          -0.03217883,
          0.06986378,
          0.13422859,
          -0.032553878,
          -0.19296807,
          -0.09407449,
          0.05873762,
          0.1756496,
          0.14976375,
          -0.15887123,
          -0.0029207403,
          -0.10793013,
          -0.05501557,
          -0.15952753,
          -0.11687364,
          0.15294366
        ],
        [
          -0.007779628,
          -0.028715922,
          0.15912102,
          -0.039872833,
          -0.18992707,
          0.18728566,
          0.19294354,
          0.04531598,
          -0.21206556,
          0.18382211,
          -0.14316149,
          -0.019370994,
          -0.01868671,
          0.043162655,
          0.1106999,
          -0.14485638,
          0.10676816,
          -0.21085444,
          -0.087793276,
          -0.068905935,
          -0.002384966,
          -0.030844029
        ],
        [
          0.023255147,
          -0.07448295,
          0.115908876,
          -0.15964635,
          -0.148482,
          -0.026911948,
          0.104474984,
          -0.057866067,
          0.04074546,
          -0.040126897,
          -0.21193852,
          0.20623113,
          -0.08092834,
          0.040496863,
          0.06758175,
          -0.10623636,
          0.14890037,
          0.21216586,
          0.20141889,
          0.039002918,
          -0.13722718,
          0.08271694
        ],
        [
          -0.12621818,
          0.082733445,
          -0.11508847,
          -0.20521106,
          0.08781357,
          -0.07706128,
          -0.19838007,
          0.17274937,
          -0.08977429,
          0.13461933,
          0.14852667,
          -0.07759919,
          0.17589425,
          0.06489592,
          0.10761993,
          -0.18146966,
          0.18244374,
          0.05868078,
          -0.060400598,
          0.0051123514,
          0.19881909,
          -0.026633332
        ],
        [
          -0.14750364,
          -0.071616754,
          -0.06418404,
          0.009601869,
          -0.20253226,
          -0.059600186,
          0.17371874,
          0.17820202,
          0.14583404,
          -0.05524587,
          -0.1467924,
          -0.08806744,
          -0.07498036,
          0.1247142,
          0.1339142,
          0.059556916,
          -0.06729303,
          -0.037321474,
          0.18007907,
          -0.1701928,
          0.19260307,
          -0.17036569
        ],
        [
          -0.06975814,
          0.21303712,
          0.1478181,
          -0.12965393,
          0.1297249,
          -0.13683407,
          -0.020941194,
          -0.07121087,
          0.12764579,
          0.1688441,
          0.15058266,
          -0.084225185,
          -0.12835072,
          -0.108498156,
          0.03720164,
          -0.12923427,
          0.056635346,
          0.03231669,
          0.10232568,
          0.14325786,
          0.01678465,
          -0.10693133
        ],
        [
          0.13126802,
          -0.11402439,
          -0.15176298,
          0.05499251,
          0.042304136,
          0.14167896,
          -0.19753627,
          0.16404651,
          0.064345285,
          -0.040233925,
          0.08878704,
          -0.010788291,
          -0.0882202,
          0.05786697,
          0.14457701,
          0.1450413,
          -0.17293033,
          0.06236488,
          -0.011180647,
          -0.124072604,
          0.005082699,
          -0.11631974
        ],
        [
          0.057566922,
          -0.12030661,
          0.111114085,
          -0.10489143,
          -0.01408401,
          -0.02055451,
          -0.026249083,
          -0.19016872,
          -0.04632284,
          0.017495751,
          -0.091403365,
          -0.092790455,
          -0.042225495,
          -0.19375837,
          0.19739127,
          -0.13731869,
          0.16847707,
          0.069759354,
          -0.08270103,
          -0.053821124,
          0.11156933,
          -0.092086315
        ],
        [
          -0.06445204,
          -0.09955907,
          -0.0074698846,
          -0.1618419,
          0.1086266,
          0.19446984,
          -0.21274328,
          0.07882472,
          -0.12162135,
          0.05961371,
          -0.07761758,
          0.20675555,
          -0.19755995,
          0.0012201531,
          -0.12786676,
          0.021264376,
          -0.12325824,
          -0.15278661,
          -0.0049816165,
          -0.13552012,
          -0.05376405,
          -0.15217413
        ],
        [
          0.014495918,
          0.13898689,
          -0.1403335,
          -0.090755574,
          0.20010462,
          0.15691248,
          0.084913336,
          -0.13641235,
          0.18437591,
          -0.20864373,
          0.13241301,
          0.20207363,
          0.18536752,
          -0.043909665,
          -0.16026253,
          -0.13137992,
          -0.09774438,
          -0.17935456,
          -0.075817086,
          0.18869853,
          -0.05369856,
          0.21163175
        ],
        [
          -0.09031618,
          0.14831851,
          -0.18623091,
          0.12388361,
          0.026120188,
          0.022261007,
          0.12331686,
          0.18918368,
          -0.16401413,
          -0.066694304,
          -0.05959343,
          -0.08936128,
          -0.21153979,
          0.15171869,
          0.21116307,
          -0.05817214,
          0.17567794,
          -0.112016805,
          -0.06662999,
          0.1440265,
          0.033272874,
          -0.0742601
        ],
        [
          -0.14661899,
          0.042909805,
          -0.050526608,
          0.08633624,
          -0.056217846,
          -0.035379555,
          -0.11528698,
          -0.19372055,
          -0.117406644,
          -0.09594769,
          -0.0122917155,
          0.079362035,
          0.022813005,
          0.1421248,
          0.109251946,
          0.07613432,
          0.13065855,
          0.13029613,
          0.12681197,
          0.13217738,
          0.016164199,
          0.10185044
        ],
        [
          -0.01308083,
          0.19543822,
          0.07720277,
          -0.2099097,
          0.024490459,
          -0.14095022,
          0.16270304,
          -0.06885637,
          0.09523886,
          0.049155135,
          0.19312817,
          -0.038843352,
          -0.07468097,
          -0.18351409,
          0.1806742,
          -0.1654114,
          0.06091555,
          -0.15106346,
          0.00019564065,
          0.101055965,
          -0.076452,
          -0.07992825
        ]
      ]
    }
  ],
  "final_rms_weight": [
    1.0,
    1.0,
    1.0,
    1.0,
    1.0,
    1.0,
    1.0,
    1.0,
    1.0,
    1.0,
    1.0,
    1.0,
    1.0,
    1.0,
    1.0,
    1.0,
    1.0,
    1.0,
    1.0,
    1.0,
    1.0,
    1.0
  ],
  "q_head": [
    [
      0.9180201,
      -0.4666774,
      -1.6683112,
      0.1584608,
      -1.1311404,
      -0.10758844,
      1.1385776,
      0.4437349,
      -0.45149451,
      -0.12258637,
      -0.5029682,
      -0.5091045,
      1.0866015,
      -1.1983746,
      -0.13221489,
      0.6095514,
      -0.8569713,
      0.3019297,
      1.2991804,
      0.2711924,
      1.3881387,
      0.23680599
    ],
    [
      0.58267677,
      -0.23303284,
      -0.8549636,
      0.16283661,
      -1.2990491,
      -0.48346186,
      0.3921789,
      0.75660443,
      -0.60307765,
      0.21228355,
      0.04269141,
      -0.4412997,
      0.33052588,
      -1.5389533,
      -0.6256751,
      0.23539354,
      -0.69714063,
      0.023833876,
      1.3399291,
      0.6263033,
      1.1394213,
      0.39810744
    ],
    [
      0.4688279,
      0.08669912,
      -0.43795943,
      0.44336626,
      -1.2249728,
      -0.27831867,
      0.32358494,
      0.9072524,
      -1.0046688,
      -0.111798696,
      -0.15113918,
      -0.42315003,
      0.5389335,
      -1.3017824,
      -0.46668595,
      0.3602829,
      -0.7450963,
      0.0089306515,
      1.4135435,
      0.503965,
      1.14044,
      0.4546808
    ],
    [
      0.6862208,
      -0.36603376,
      -0.2509474,
      -0.006249168,
      -0.8163916,
      -0.13667534,
      0.5745835,
      0.6409087,
      -0.86112446,
      -0.24145184,
      -0.31399468,
      -0.07726741,
      0.7659962,
      -1.0152432,
      -0.18519963,
      0.44641468,
      -0.795679,
      0.3994368,
      1.2246066,
      0.30204555,
      0.9661597,
      0.28518084
    ],
    [
      0.45004416,
      -0.054202147,
      -0.348394,
      -0.046750445,
      -0.78872454,
      -0.14426605,
      -0.12614271,
      0.62546146,
      -0.6332722,
      -0.48780656,
      -0.062327567,
      -0.24747479,
      0.26820812,
      -1.3589872,
      -0.5335293,
      0.41155148,
      -0.36657488,
      0.4728283,
      1.6120094,
      0.01966572,
      0.9915924,
      0.23109944
    ],
    [
      0.31843436,
      0.028221698,
      -0.3066091,
      0.0056884713,
      -0.9514582,
      -0.33619028,
      0.20961194,
      0.7277963,
      -0.82725215,
      -0.66339445,
      -0.3140027,
      -0.12761272,
      0.1683655,
      -1.2282768,
      -0.44387433,
      0.41800815,
      -0.3498839,
      0.63793796,
      1.4165411,
      -0.1346103,
      0.8837889,
      0.14374611
    ],
    [
      0.4950449,
      -0.22541636,
      -0.16431248,
      0.028205065,
      -0.81096935,
      -0.3138346,
      0.15623772,
      0.54402405,
      -0.7083721,
      -0.43155196,
      -0.21960391,
      -0.22960708,
      0.3373803,
      -1.6024293,
      -0.6445178,
      0.3775522,
      -0.27155104,
      0.6231464,
      1.4092495,
      0.16582213,
      0.8264784,
      0.13922863
    ],
    [
      0.59556675,
      0.03214565,
      -0.29940337,
      -0.08694641,
      -0.8222174,
      -0.55138934,
      -0.044202738,
      0.6855452,
      -0.49118096,
      -0.49993944,
      0.043465666,
      -0.071414344,
      0.5402384,
      -1.6234068,
      -0.62308156,
      0.55150586,
      -0.39660016,
      0.61668336,
      1.4019979,
      0.23940046,
      0.93154514,
      0.23425497
    ]
  ],
  "q_bias": [
    0.82541555,
    0.562082,
    0.541717,
    0.5466744,
    0.6587727,
    0.63673496,
    0.6420299,
    0.66481364
  ],
  "action_names": [
    "PATH_FRONT",
    "PATH_LEFT",
    "PATH_RIGHT",
    "PATH_BACK",
    "DASH_UP",
    "DASH_DOWN",
    "DASH_LEFT",
    "DASH_RIGHT"
  ]
}